svm_type c_svc
kernel_type rbf
gamma 0.25
nr_class 2
total_sv 77
rho -0.5800260038432857
label 1 -1
nr_sv 50 27
SV
1.0 1:-0.853868 2:-0.111111 3:-0.555556 4:-0.555556 5:-0.555556 6:-0.777778 7:-0.555556 8:-0.333333 9:-0.333333 10:-1.0 
1.0 1:-0.852997 2:0.333333 3:-0.333333 4:0.111111 5:-0.333333 6:0.111111 7:-1.0 8:-0.333333 9:-0.555556 10:-1.0 
0.16938878927884302 1:-0.851958 2:0.333333 3:-0.555556 4:-0.777778 5:1.0 6:-0.111111 7:1.0 8:-0.111111 9:-0.333333 10:-0.333333 
0.5722717828068193 1:-0.850295 2:-0.111111 3:-0.777778 4:-0.555556 5:-0.333333 6:-0.777778 7:0.333333 8:-0.555556 9:0.111111 10:-1.0 
0.9803050980001689 1:-0.846481 2:-0.777778 3:-0.111111 4:-0.555556 5:-0.555556 6:0.111111 7:0.333333 8:0.333333 9:-0.111111 10:-1.0 
0.8721080960435224 1:-0.844791 2:-0.111111 3:0.111111 4:-0.111111 5:0.111111 6:1.0 7:-1.0 8:-0.555556 9:-1.0 10:-1.0 
0.3458734678770972 1:-0.843926 2:0.777778 3:-0.111111 4:0.555556 5:-1.0 6:-0.777778 7:-0.555556 8:-0.777778 9:-1.0 10:-0.111111 
1.0 1:-0.843914 2:-0.111111 3:-0.555556 4:-0.555556 5:-0.333333 6:-0.777778 7:-0.333333 8:-0.555556 9:-0.333333 10:-1.0 
1.0 1:-0.843099 2:0.777778 3:-0.111111 4:-0.111111 5:-0.777778 6:-0.777778 7:-0.777778 8:-0.111111 9:-1.0 10:-1.0 
0.21262827925742409 1:-0.842893 2:-0.111111 3:-0.555556 4:-0.111111 5:-0.111111 6:-0.555556 7:-0.555556 8:-0.333333 9:1.0 10:-1.0 
1.0 1:-0.842766 2:0.111111 3:-0.555556 4:-0.333333 5:-1.0 6:-0.111111 7:-0.777778 8:-0.555556 9:0.777778 10:-1.0 
0.2793587268126262 1:-0.842637 2:1.0 3:-0.333333 4:-0.777778 5:-1.0 6:-0.555556 7:-0.777778 8:-0.333333 9:-0.555556 10:1.0 
0.027887089987330638 1:-0.841731 2:0.111111 3:1.0 4:-0.777778 5:0.555556 6:1.0 7:-0.777778 8:0.333333 9:0.555556 10:1.0 
0.07396677871788933 1:-0.841437 2:0.777778 3:-0.333333 4:-0.111111 5:1.0 6:0.111111 7:1.0 8:-0.333333 9:0.555556 10:-1.0 
0.08683020626357411 1:-0.838044 2:-0.111111 3:1.0 4:0.111111 5:-1.0 6:1.0 7:-0.333333 8:-0.333333 9:1.0 10:1.0 
1.0 1:-0.835103 2:-0.777778 3:-0.555556 4:-0.333333 5:-0.333333 6:-0.777778 7:-0.111111 8:-0.777778 9:-0.111111 10:-1.0 
1.0 1:-0.834966 2:0.555556 3:-0.777778 4:-0.555556 5:-1.0 6:0.111111 7:-0.555556 8:0.333333 9:-1.0 10:-1.0 
0.35482273701992584 1:-0.834658 2:1.0 3:1.0 4:1.0 5:0.555556 6:-0.777778 7:1.0 8:-0.333333 9:-1.0 10:-1.0 
1.0 1:-0.83239 2:-0.555556 3:-0.333333 4:-0.111111 5:-0.777778 6:0.111111 7:0.555556 8:-0.333333 9:-1.0 10:-1.0 
0.6355925002127856 1:-0.82982 2:-0.111111 3:-0.555556 4:-0.555556 5:-0.555556 6:0.111111 7:1.0 8:-0.555556 9:-1.0 10:-1.0 
0.07747828271789395 1:-0.829218 2:1.0 3:-0.111111 4:0.111111 5:1.0 6:0.111111 7:1.0 8:0.333333 9:0.333333 10:1.0 
0.08953811328457914 1:-0.828567 2:0.333333 3:-0.111111 4:1.0 5:1.0 6:1.0 7:1.0 8:-0.333333 9:1.0 10:-0.555556 
0.08305148805029797 1:-0.826947 2:1.0 3:1.0 4:1.0 5:1.0 6:-0.555556 7:1.0 8:1.0 9:0.111111 10:-1.0 
0.1614505504259177 1:-0.826387 2:1.0 3:0.111111 4:-0.333333 5:-0.555556 6:1.0 7:1.0 8:0.777778 9:1.0 10:-1.0 
1.0 1:-0.826355 2:-0.333333 3:-1.0 4:-1.0 5:-0.555556 6:-1.0 7:-0.111111 8:-0.777778 9:-1.0 10:-1.0 
0.05354138167359566 1:-0.823913 2:0.555556 3:1.0 4:1.0 5:0.555556 6:0.111111 7:0.777778 8:-0.555556 9:1.0 10:1.0 
0.19412102630920783 1:-0.842769 2:0.777778 3:1.0 4:1.0 5:-1.0 6:1.0 7:0.555556 8:-0.555556 9:-0.555556 10:-1.0 
0.21684508825787338 1:-0.961571 2:-0.555556 3:-0.555556 4:-0.111111 5:-0.777778 6:-0.555556 7:1.0 8:0.333333 9:-1.0 10:-1.0 
1.0 1:-0.945407 2:0.333333 3:-0.777778 4:-0.333333 5:-1.0 6:-0.555556 7:-0.333333 8:-0.555556 9:-0.555556 10:-1.0 
0.16987851458101647 1:-0.930408 2:1.0 3:1.0 4:1.0 5:1.0 6:1.0 7:1.0 8:-0.333333 9:1.0 10:1.0 
0.7361476556030733 1:-0.928283 2:0.111111 3:-1.0 4:-0.555556 5:-1.0 6:-0.333333 7:-0.111111 8:-0.111111 9:1.0 10:-1.0 
0.003690151907666665 1:-0.895956 2:0.555556 3:1.0 4:-0.555556 5:-0.777778 6:0.111111 7:-0.333333 8:-0.555556 9:1.0 10:-1.0 
1.0 1:-0.885169 2:-0.555556 3:-0.333333 4:-0.333333 5:1.0 6:-0.111111 7:-1.0 8:-0.555556 9:-0.555556 10:-1.0 
1.0 1:-0.881145 2:-0.111111 3:-0.555556 4:-0.555556 5:-1.0 6:-0.555556 7:-0.555556 8:-0.555556 9:-0.555556 10:-0.555556 
0.2055823701095965 1:-0.878341 2:-0.555556 3:1.0 4:-0.555556 5:1.0 6:0.111111 7:1.0 8:-0.111111 9:-1.0 10:-0.333333 
0.1115425760187418 1:-0.821496 2:0.777778 3:1.0 4:1.0 5:1.0 6:1.0 7:1.0 8:1.0 9:1.0 10:-1.0 
0.341492734529012 1:-0.816024 2:1.0 3:1.0 4:1.0 5:-1.0 6:0.111111 7:-1.0 8:-0.777778 9:0.555556 10:-1.0 
0.11061122831630069 1:-0.918634 2:1.0 3:-0.333333 4:-0.555556 5:1.0 6:-0.333333 7:1.0 8:1.0 9:-1.0 10:-1.0 
0.9283496310511006 1:-0.823286 2:1.0 3:-0.777778 4:-0.777778 5:-1.0 6:-0.777778 7:0.111111 8:-1.0 9:-1.0 10:-0.777778 
1.0 1:-0.847545 2:0.111111 3:-0.555556 4:-0.777778 5:-1.0 6:-0.555556 7:-0.333333 8:-0.333333 9:-1.0 10:-1.0 
0.10098115461758803 1:-0.813315 2:-0.333333 3:1.0 4:-0.333333 5:0.333333 6:-0.555556 7:1.0 8:0.777778 9:1.0 10:-1.0 
0.009373277430742797 1:-0.810613 2:-0.111111 3:0.333333 4:1.0 5:1.0 6:-0.111111 7:1.0 8:1.0 9:1.0 10:-1.0 
0.12189029444893011 1:-0.988118 2:0.333333 3:0.111111 4:1.0 5:-0.111111 6:-0.555556 7:1.0 8:0.777778 9:1.0 10:-0.777778 
0.024221843383819386 1:-0.844028 2:0.111111 3:1.0 4:-0.111111 5:-0.111111 6:-0.333333 7:1.0 8:0.111111 9:1.0 10:-1.0 
0.16558339553464443 1:-0.816162 2:-0.333333 3:1.0 4:0.555556 5:-0.111111 6:-0.333333 7:-1.0 8:1.0 9:-1.0 10:-1.0 
0.24796295872708513 1:-0.981337 2:-0.111111 3:-0.555556 4:-0.777778 5:0.555556 6:-0.111111 7:1.0 8:0.555556 9:-1.0 10:-0.777778 
0.16073987894295988 1:-0.926188 2:-0.111111 3:1.0 4:1.0 5:1.0 6:1.0 7:1.0 8:1.0 9:-1.0 10:-1.0 
0.18466690799779714 1:-0.812944 2:-0.111111 3:1.0 4:1.0 5:1.0 6:1.0 7:-0.777778 8:1.0 9:1.0 10:1.0 
0.7147342686807351 1:-0.807789 2:-0.111111 3:0.333333 4:-0.333333 5:-1.0 6:0.111111 7:-1.0 8:0.333333 9:1.0 10:-0.555556 
0.18444219371102047 1:-0.90565 2:-0.111111 3:1.0 4:1.0 5:-0.111111 6:-0.333333 7:-0.111111 8:-0.333333 9:-0.333333 10:-1.0 
-1.0 1:-0.859671 2:-0.111111 3:-0.333333 4:-0.333333 5:-0.111111 6:0.333333 7:1.0 8:-0.555556 9:-0.777778 10:-1.0 
-1.0 1:-0.85768 2:0.111111 3:0.555556 4:0.555556 5:-1.0 6:-0.555556 7:-0.333333 8:-0.555556 9:0.333333 10:-1.0 
-1.0 1:-0.857408 2:-1.0 3:-1.0 4:-1.0 5:-1.0 6:-0.777778 7:1.0 8:-0.555556 9:-1.0 10:-1.0 
-1.0 1:-0.847895 2:0.111111 3:-0.777778 4:-1.0 5:-1.0 6:-1.0 7:-1.0 8:0.333333 9:-1.0 10:-1.0 
-0.05508338649534289 1:-0.841494 2:-1.0 3:-0.555556 4:-0.555556 5:-0.777778 6:-0.777778 7:-1.0 8:0.333333 9:-0.777778 10:-1.0 
-1.0 1:-0.834221 2:0.555556 3:-0.555556 4:-0.555556 5:-1.0 6:-0.777778 7:-0.777778 8:-0.555556 9:-0.777778 10:-1.0 
-0.5347514694457446 1:-0.833599 2:-1.0 3:-1.0 4:-1.0 5:-1.0 6:1.0 7:-1.0 8:-1.0 9:-1.0 10:-1.0 
-1.0 1:-0.832114 2:-0.555556 3:-1.0 4:-1.0 5:-0.555556 6:0.555556 7:-1.0 8:-0.111111 9:0.555556 10:-1.0 
-0.722195142739612 1:-0.830623 2:-1.0 3:-1.0 4:-1.0 5:-0.777778 6:-1.0 7:-0.555556 8:-1.0 9:-1.0 10:0.333333 
-1.0 1:-0.828243 2:0.555556 3:-0.333333 4:-0.333333 5:-0.111111 6:-0.333333 7:0.333333 8:0.333333 9:0.555556 10:-0.777778 
-1.0 1:-0.819714 2:-0.111111 3:-1.0 4:-0.555556 5:-0.555556 6:-0.777778 7:-0.777778 8:-0.777778 9:-0.555556 10:-1.0 
-0.9090769845180807 1:-0.990339 2:-1.0 3:-1.0 4:-1.0 5:-1.0 6:-0.777778 7:-0.111111 8:-0.111111 9:-1.0 10:-1.0 
-0.27884424402600505 1:-0.984444 2:-0.333333 3:-1.0 4:-1.0 5:-1.0 6:-0.777778 7:-1.0 8:-0.555556 9:0.111111 10:-1.0 
-1.0 1:-0.917427 2:-0.111111 3:-0.555556 4:-0.333333 5:-0.555556 6:-0.333333 7:-0.111111 8:-0.333333 9:0.333333 10:-1.0 
-1.0 1:-0.916089 2:0.555556 3:-0.777778 4:-1.0 5:-1.0 6:-0.111111 7:-1.0 8:-1.0 9:-1.0 10:-1.0 
-1.0 1:-0.901709 2:-0.333333 3:-0.333333 4:-0.333333 5:-0.333333 6:0.111111 7:-0.111111 8:0.333333 9:-0.555556 10:-1.0 
-1.0 1:-0.876761 2:-0.333333 3:-0.333333 4:-0.333333 5:-0.777778 6:-0.777778 7:-0.555556 8:-0.777778 9:-1.0 10:-1.0 
-0.7724146872238712 1:-0.907012 2:-0.111111 3:-0.555556 4:-0.333333 5:-1.0 6:-0.333333 7:-1.0 8:-0.555556 9:-1.0 10:-1.0 
-1.0 1:-0.821495 2:-0.111111 3:-0.555556 4:0.111111 5:-1.0 6:-0.777778 7:-1.0 8:-1.0 9:-1.0 10:-1.0 
-1.0 1:-0.816285 2:0.111111 3:0.777778 4:0.333333 5:-0.111111 6:-0.111111 7:0.555556 8:-0.333333 9:-0.777778 10:-1.0 
-1.0 1:-0.908217 2:-0.111111 3:-0.777778 4:-0.777778 5:-0.333333 6:-0.777778 7:-0.333333 8:-1.0 9:-1.0 10:-1.0 
-1.0 1:-0.836817 2:-0.111111 3:-1.0 4:-0.777778 5:1.0 6:-0.333333 7:-0.111111 8:-0.777778 9:-1.0 10:-1.0 
-1.0 1:-0.813216 2:-0.333333 3:-0.555556 4:-1.0 5:-1.0 6:-0.777778 7:-1.0 8:-0.333333 9:0.555556 10:-1.0 
-1.0 1:-0.84572 2:0.111111 3:-0.555556 4:-0.555556 5:-0.555556 6:-0.555556 7:-0.777778 8:0.111111 9:-1.0 10:-1.0 
-1.0 1:-0.810245 2:-0.111111 3:-0.333333 4:-0.111111 5:-1.0 6:0.555556 7:-1.0 8:-0.555556 9:0.111111 10:-1.0 
-0.6985639022079496 1:1.0 2:-1.0 3:-1.0 4:-0.555556 5:-1.0 6:-0.777778 7:-1.0 8:-0.777778 9:-1.0 10:-1.0 
-0.03802070193259659 1:-0.911706 2:-1.0 3:-1.0 4:-1.0 5:-1.0 6:-0.777778 7:-1.0 8:-1.0 9:-1.0 10:0.555556 
